<?xml version="1.0"?>
<opencv_storage>
<cascade>
  <stageType>BOOST</stageType>
  <featureType>HAAR</featureType>
  <height>40</height>
  <width>40</width>
  <stageParams>
    <boostType>GAB</boostType>
    <minHitRate>9.9500000476837158e-01</minHitRate>
    <maxFalseAlarm>5.0000000000000000e-01</maxFalseAlarm>
    <weightTrimRate>9.4999999999999996e-01</weightTrimRate>
    <maxDepth>1</maxDepth>
    <maxWeakCount>100</maxWeakCount></stageParams>
  <featureParams>
    <maxCatCount>0</maxCatCount>
    <featSize>1</featSize>
    <mode>BASIC</mode></featureParams>
  <stageNum>8</stageNum>
  <stages>
    <!-- stage 0 -->
    <_>
      <maxWeakCount>4</maxWeakCount>
      <stageThreshold>-1.8142405748367310e+00</stageThreshold>
      <weakClassifiers>
        <_>
          <internalNodes>
            0 -1 21 -6.5363362431526184e-02</internalNodes>
          <leafValues>
            5.8883994817733765e-01 -8.8420021533966064e-01</leafValues></_>
        <_>
          <internalNodes>
            0 -1 53 4.4428758323192596e-02</internalNodes>
          <leafValues>
            -7.2857171297073364e-01 5.2098149061203003e-01</leafValues></_>
        <_>
          <internalNodes>
            0 -1 5 -3.2150760293006897e-02</internalNodes>
          <leafValues>
            4.5113071799278259e-01 -7.4044221639633179e-01</leafValues></_>
        <_>
          <internalNodes>
            0 -1 4 -5.2581116557121277e-02</internalNodes>
          <leafValues>
            3.0079501867294312e-01 -9.3406659364700317e-01</leafValues></_></weakClassifiers></_>
    <!-- stage 1 -->
    <_>
      <maxWeakCount>6</maxWeakCount>
      <stageThreshold>-1.4971332550048828e+00</stageThreshold>
      <weakClassifiers>
        <_>
          <internalNodes>
            0 -1 38 -2.5607746094465256e-02</internalNodes>
          <leafValues>
            6.0360360145568848e-01 -6.8753522634506226e-01</leafValues></_>
        <_>
          <internalNodes>
            0 -1 15 3.2880347222089767e-02</internalNodes>
          <leafValues>
            -8.0367571115493774e-01 3.9499709010124207e-01</leafValues></_>
        <_>
          <internalNodes>
            0 -1 7 -1.1219759285449982e-01</internalNodes>
          <leafValues>
            3.7253946065902710e-01 -7.4570965766906738e-01</leafValues></_>
        <_>
          <internalNodes>
            0 -1 16 -3.9282001554965973e-02</internalNodes>
          <leafValues>
            3.4753340482711792e-01 -6.7265421152114868e-01</leafValues></_>
        <_>
          <internalNodes>
            0 -1 29 7.3991976678371429e-03</internalNodes>
          <leafValues>
            -4.4907122850418091e-01 4.4408395886421204e-01</leafValues></_>
        <_>
          <internalNodes>
            0 -1 25 2.2477125748991966e-02</internalNodes>
          <leafValues>
            -2.2619433701038361e-01 8.4132516384124756e-01</leafValues></_></weakClassifiers></_>
    <!-- stage 2 -->
    <_>
      <maxWeakCount>8</maxWeakCount>
      <stageThreshold>-1.5722408294677734e+00</stageThreshold>
      <weakClassifiers>
        <_>
          <internalNodes>
            0 -1 28 1.2465997599065304e-02</internalNodes>
          <leafValues>
            -7.2444730997085571e-01 3.8453763723373413e-01</leafValues></_>
        <_>
          <internalNodes>
            0 -1 11 -2.0825093984603882e-01</internalNodes>
          <leafValues>
            4.8239848017692566e-01 -6.3795703649520874e-01</leafValues></_>
        <_>
          <internalNodes>
            0 -1 31 1.3799626380205154e-02</internalNodes>
          <leafValues>
            -2.4780286848545074e-01 7.5550752878189087e-01</leafValues></_>
        <_>
          <internalNodes>
            0 -1 30 -1.2151016853749752e-02</internalNodes>
          <leafValues>
            6.7049926519393921e-01 -2.9039263725280762e-01</leafValues></_>
        <_>
          <internalNodes>
            0 -1 23 1.5859346836805344e-02</internalNodes>
          <leafValues>
            -4.2239803075790405e-01 4.2865809798240662e-01</leafValues></_>
        <_>
          <internalNodes>
            0 -1 49 -6.7694820463657379e-03</internalNodes>
          <leafValues>
            2.8422194719314575e-01 -7.9301738739013672e-01</leafValues></_>
        <_>
          <internalNodes>
            0 -1 9 -5.2263974212110043e-03</internalNodes>
          <leafValues>
            2.1338541805744171e-01 -6.7037099599838257e-01</leafValues></_>
        <_>
          <internalNodes>
            0 -1 43 2.5431944057345390e-02</internalNodes>
          <leafValues>
            -5.2397751808166504e-01 3.5001167654991150e-01</leafValues></_></weakClassifiers></_>
    <!-- stage 3 -->
    <_>
      <maxWeakCount>7</maxWeakCount>
      <stageThreshold>-1.1625797748565674e+00</stageThreshold>
      <weakClassifiers>
        <_>
          <internalNodes>
            0 -1 24 2.7917873114347458e-02</internalNodes>
          <leafValues>
            -6.4170098304748535e-01 5.7663232088088989e-01</leafValues></_>
        <_>
          <internalNodes>
            0 -1 37 7.9475408419966698e-03</internalNodes>
          <leafValues>
            -2.8940334916114807e-01 7.4218887090682983e-01</leafValues></_>
        <_>
          <internalNodes>
            0 -1 40 6.7693614400923252e-03</internalNodes>
          <leafValues>
            -3.3421343564987183e-01 8.1188267469406128e-01</leafValues></_>
        <_>
          <internalNodes>
            0 -1 42 5.1059490069746971e-03</internalNodes>
          <leafValues>
            -1.9042818248271942e-01 7.2642099857330322e-01</leafValues></_>
        <_>
          <internalNodes>
            0 -1 10 -5.4688517004251480e-02</internalNodes>
          <leafValues>
            3.1481173634529114e-01 -5.8408087491989136e-01</leafValues></_>
        <_>
          <internalNodes>
            0 -1 57 1.3625207357108593e-02</internalNodes>
          <leafValues>
            2.2264300286769867e-01 -8.0044072866439819e-01</leafValues></_>
        <_>
          <internalNodes>
            0 -1 27 9.7161531448364258e-03</internalNodes>
          <leafValues>
            -2.4428859353065491e-01 7.8199279308319092e-01</leafValues></_></weakClassifiers></_>
    <!-- stage 4 -->
    <_>
      <maxWeakCount>8</maxWeakCount>
      <stageThreshold>-2.0829555988311768e+00</stageThreshold>
      <weakClassifiers>
        <_>
          <internalNodes>
            0 -1 39 8.4544392302632332e-03</internalNodes>
          <leafValues>
            -7.0659238100051880e-01 4.1894060373306274e-01</leafValues></_>
        <_>
          <internalNodes>
            0 -1 52 1.7490621656179428e-02</internalNodes>
          <leafValues>
            -5.0663989782333374e-01 4.2883002758026123e-01</leafValues></_>
        <_>
          <internalNodes>
            0 -1 48 1.1192992329597473e-02</internalNodes>
          <leafValues>
            -6.5689510107040405e-01 3.0632263422012329e-01</leafValues></_>
        <_>
          <internalNodes>
            0 -1 17 1.9464597105979919e-02</internalNodes>
          <leafValues>
            -2.5471261143684387e-01 8.1896716356277466e-01</leafValues></_>
        <_>
          <internalNodes>
            0 -1 2 -2.4061806499958038e-02</internalNodes>
          <leafValues>
            5.8185607194900513e-01 -3.3828717470169067e-01</leafValues></_>
        <_>
          <internalNodes>
            0 -1 45 8.9930081740021706e-03</internalNodes>
          <leafValues>
            -2.2834451496601105e-01 8.2781755924224854e-01</leafValues></_>
        <_>
          <internalNodes>
            0 -1 47 -1.3164570555090904e-02</internalNodes>
          <leafValues>
            7.6335555315017700e-01 -1.8936738371849060e-01</leafValues></_>
        <_>
          <internalNodes>
            0 -1 54 7.3634749278426170e-03</internalNodes>
          <leafValues>
            -2.5827851891517639e-01 7.8568291664123535e-01</leafValues></_></weakClassifiers></_>
    <!-- stage 5 -->
    <_>
      <maxWeakCount>8</maxWeakCount>
      <stageThreshold>-1.0794341564178467e+00</stageThreshold>
      <weakClassifiers>
        <_>
          <internalNodes>
            0 -1 26 3.5177320241928101e-02</internalNodes>
          <leafValues>
            -5.6530457735061646e-01 6.7956793308258057e-01</leafValues></_>
        <_>
          <internalNodes>
            0 -1 3 -8.0970197916030884e-02</internalNodes>
          <leafValues>
            2.3785604536533356e-01 -7.4964588880538940e-01</leafValues></_>
        <_>
          <internalNodes>
            0 -1 44 1.2385175563395023e-02</internalNodes>
          <leafValues>
            -5.5828464031219482e-01 2.9873886704444885e-01</leafValues></_>
        <_>
          <internalNodes>
            0 -1 36 1.2795759364962578e-02</internalNodes>
          <leafValues>
            -1.9263084232807159e-01 8.4355711936950684e-01</leafValues></_>
        <_>
          <internalNodes>
            0 -1 34 2.2075895220041275e-02</internalNodes>
          <leafValues>
            -2.5783303380012512e-01 7.5901716947555542e-01</leafValues></_>
        <_>
          <internalNodes>
            0 -1 41 1.0378208011388779e-02</internalNodes>
          <leafValues>
            -1.9850851595401764e-01 7.5708729028701782e-01</leafValues></_>
        <_>
          <internalNodes>
            0 -1 18 1.0349942371249199e-02</internalNodes>
          <leafValues>
            -1.6605937480926514e-01 7.9814410209655762e-01</leafValues></_>
        <_>
          <internalNodes>
            0 -1 14 -3.6768428981304169e-02</internalNodes>
          <leafValues>
            8.2911866903305054e-01 -2.3569276928901672e-01</leafValues></_></weakClassifiers></_>
    <!-- stage 6 -->
    <_>
      <maxWeakCount>9</maxWeakCount>
      <stageThreshold>-1.7244642972946167e+00</stageThreshold>
      <weakClassifiers>
        <_>
          <internalNodes>
            0 -1 35 -3.8896076381206512e-02</internalNodes>
          <leafValues>
            8.0615735054016113e-01 -5.2261424064636230e-01</leafValues></_>
        <_>
          <internalNodes>
            0 -1 46 6.8505860865116119e-02</internalNodes>
          <leafValues>
            -5.1542598009109497e-01 4.2098772525787354e-01</leafValues></_>
        <_>
          <internalNodes>
            0 -1 32 2.1531701087951660e-02</internalNodes>
          <leafValues>
            -2.2343170642852783e-01 7.9533505439758301e-01</leafValues></_>
        <_>
          <internalNodes>
            0 -1 33 -1.9003950059413910e-02</internalNodes>
          <leafValues>
            7.7732050418853760e-01 -2.6029536128044128e-01</leafValues></_>
        <_>
          <internalNodes>
            0 -1 56 2.8334371745586395e-04</internalNodes>
          <leafValues>
            2.6215752959251404e-01 -7.4901705980300903e-01</leafValues></_>
        <_>
          <internalNodes>
            0 -1 56 -3.2232026569545269e-04</internalNodes>
          <leafValues>
            -6.8726915121078491e-01 2.7078634500503540e-01</leafValues></_>
        <_>
          <internalNodes>
            0 -1 22 -1.9403070211410522e-02</internalNodes>
          <leafValues>
            7.7825891971588135e-01 -2.6927968859672546e-01</leafValues></_>
        <_>
          <internalNodes>
            0 -1 8 1.9950002431869507e-02</internalNodes>
          <leafValues>
            2.7442982792854309e-01 -7.8730756044387817e-01</leafValues></_>
        <_>
          <internalNodes>
            0 -1 6 -1.5825316309928894e-02</internalNodes>
          <leafValues>
            -7.8818804025650024e-01 2.7038356661796570e-01</leafValues></_></weakClassifiers></_>
    <!-- stage 7 -->
    <_>
      <maxWeakCount>10</maxWeakCount>
      <stageThreshold>-1.5282802581787109e+00</stageThreshold>
      <weakClassifiers>
        <_>
          <internalNodes>
            0 -1 17 -3.5670667886734009e-02</internalNodes>
          <leafValues>
            6.2437564134597778e-01 -5.1841914653778076e-01</leafValues></_>
        <_>
          <internalNodes>
            0 -1 19 1.3402441516518593e-02</internalNodes>
          <leafValues>
            -6.5381002426147461e-01 2.8754547238349915e-01</leafValues></_>
        <_>
          <internalNodes>
            0 -1 55 -2.2981930524110794e-02</internalNodes>
          <leafValues>
            7.7955150604248047e-01 -2.1585401892662048e-01</leafValues></_>
        <_>
          <internalNodes>
            0 -1 51 4.5129179954528809e-02</internalNodes>
          <leafValues>
            -3.1483128666877747e-01 5.9455454349517822e-01</leafValues></_>
        <_>
          <internalNodes>
            0 -1 12 -1.5856623649597168e-02</internalNodes>
          <leafValues>
            7.2710579633712769e-01 -1.9559238851070404e-01</leafValues></_>
        <_>
          <internalNodes>
            0 -1 20 -7.7511459589004517e-02</internalNodes>
          <leafValues>
            3.3127769827842712e-01 -5.1032823324203491e-01</leafValues></_>
        <_>
          <internalNodes>
            0 -1 13 2.8777560219168663e-02</internalNodes>
          <leafValues>
            -2.2163805365562439e-01 7.5414609909057617e-01</leafValues></_>
        <_>
          <internalNodes>
            0 -1 0 -3.4369350760243833e-04</internalNodes>
          <leafValues>
            -7.6072877645492554e-01 2.1653752028942108e-01</leafValues></_>
        <_>
          <internalNodes>
            0 -1 1 3.7963682552799582e-04</internalNodes>
          <leafValues>
            2.7627924084663391e-01 -6.7451232671737671e-01</leafValues></_>
        <_>
          <internalNodes>
            0 -1 50 2.0317420363426208e-02</internalNodes>
          <leafValues>
            -2.3222984373569489e-01 6.2241339683532715e-01</leafValues></_></weakClassifiers></_></stages>
  <features>
    <_>
      <rects>
        <_>
          0 0 1 6 -1.</_>
        <_>
          0 3 1 3 2.</_></rects>
      <tilted>0</tilted></_>
    <_>
      <rects>
        <_>
          0 0 2 6 -1.</_>
        <_>
          0 3 2 3 2.</_></rects>
      <tilted>0</tilted></_>
    <_>
      <rects>
        <_>
          0 0 14 24 -1.</_>
        <_>
          0 0 7 12 2.</_>
        <_>
          7 12 7 12 2.</_></rects>
      <tilted>0</tilted></_>
    <_>
      <rects>
        <_>
          0 0 40 33 -1.</_>
        <_>
          0 11 40 11 3.</_></rects>
      <tilted>0</tilted></_>
    <_>
      <rects>
        <_>
          0 1 40 39 -1.</_>
        <_>
          0 14 40 13 3.</_></rects>
      <tilted>0</tilted></_>
    <_>
      <rects>
        <_>
          0 2 14 35 -1.</_>
        <_>
          7 2 7 35 2.</_></rects>
      <tilted>0</tilted></_>
    <_>
      <rects>
        <_>
          0 3 4 32 -1.</_>
        <_>
          0 19 4 16 2.</_></rects>
      <tilted>0</tilted></_>
    <_>
      <rects>
        <_>
          0 3 39 37 -1.</_>
        <_>
          13 3 13 37 3.</_></rects>
      <tilted>0</tilted></_>
    <_>
      <rects>
        <_>
          0 4 4 36 -1.</_>
        <_>
          0 22 4 18 2.</_></rects>
      <tilted>0</tilted></_>
    <_>
      <rects>
        <_>
          0 4 12 15 -1.</_>
        <_>
          6 4 6 15 2.</_></rects>
      <tilted>0</tilted></_>
    <_>
      <rects>
        <_>
          0 23 39 15 -1.</_>
        <_>
          13 23 13 15 3.</_></rects>
      <tilted>0</tilted></_>
    <_>
      <rects>
        <_>
          1 1 39 37 -1.</_>
        <_>
          14 1 13 37 3.</_></rects>
      <tilted>0</tilted></_>
    <_>
      <rects>
        <_>
          2 15 9 11 -1.</_>
        <_>
          5 15 3 11 3.</_></rects>
      <tilted>0</tilted></_>
    <_>
      <rects>
        <_>
          3 12 12 15 -1.</_>
        <_>
          7 12 4 15 3.</_></rects>
      <tilted>0</tilted></_>
    <_>
      <rects>
        <_>
          3 13 12 15 -1.</_>
        <_>
          7 13 4 15 3.</_></rects>
      <tilted>0</tilted></_>
    <_>
      <rects>
        <_>
          3 24 35 16 -1.</_>
        <_>
          3 32 35 8 2.</_></rects>
      <tilted>0</tilted></_>
    <_>
      <rects>
        <_>
          5 0 31 14 -1.</_>
        <_>
          5 7 31 7 2.</_></rects>
      <tilted>0</tilted></_>
    <_>
      <rects>
        <_>
          5 14 12 12 -1.</_>
        <_>
          9 14 4 12 3.</_></rects>
      <tilted>0</tilted></_>
    <_>
      <rects>
        <_>
          5 17 9 6 -1.</_>
        <_>
          8 17 3 6 3.</_></rects>
      <tilted>0</tilted></_>
    <_>
      <rects>
        <_>
          5 23 12 16 -1.</_>
        <_>
          5 31 12 8 2.</_></rects>
      <tilted>0</tilted></_>
    <_>
      <rects>
        <_>
          6 0 29 16 -1.</_>
        <_>
          6 8 29 8 2.</_></rects>
      <tilted>0</tilted></_>
    <_>
      <rects>
        <_>
          7 0 27 16 -1.</_>
        <_>
          7 8 27 8 2.</_></rects>
      <tilted>0</tilted></_>
    <_>
      <rects>
        <_>
          7 19 12 5 -1.</_>
        <_>
          11 19 4 5 3.</_></rects>
      <tilted>0</tilted></_>
    <_>
      <rects>
        <_>
          7 28 16 12 -1.</_>
        <_>
          7 34 16 6 2.</_></rects>
      <tilted>0</tilted></_>
    <_>
      <rects>
        <_>
          8 7 14 16 -1.</_>
        <_>
          8 7 7 8 2.</_>
        <_>
          15 15 7 8 2.</_></rects>
      <tilted>0</tilted></_>
    <_>
      <rects>
        <_>
          8 7 22 9 -1.</_>
        <_>
          8 10 22 3 3.</_></rects>
      <tilted>0</tilted></_>
    <_>
      <rects>
        <_>
          8 8 14 14 -1.</_>
        <_>
          8 8 7 7 2.</_>
        <_>
          15 15 7 7 2.</_></rects>
      <tilted>0</tilted></_>
    <_>
      <rects>
        <_>
          8 15 6 12 -1.</_>
        <_>
          11 15 3 12 2.</_></rects>
      <tilted>0</tilted></_>
    <_>
      <rects>
        <_>
          11 17 18 6 -1.</_>
        <_>
          17 17 6 6 3.</_></rects>
      <tilted>0</tilted></_>
    <_>
      <rects>
        <_>
          11 19 18 5 -1.</_>
        <_>
          17 19 6 5 3.</_></rects>
      <tilted>0</tilted></_>
    <_>
      <rects>
        <_>
          11 21 9 9 -1.</_>
        <_>
          11 24 9 3 3.</_></rects>
      <tilted>0</tilted></_>
    <_>
      <rects>
        <_>
          12 20 9 9 -1.</_>
        <_>
          12 23 9 3 3.</_></rects>
      <tilted>0</tilted></_>
    <_>
      <rects>
        <_>
          14 21 10 12 -1.</_>
        <_>
          14 25 10 4 3.</_></rects>
      <tilted>0</tilted></_>
    <_>
      <rects>
        <_>
          14 22 12 9 -1.</_>
        <_>
          14 25 12 3 3.</_></rects>
      <tilted>0</tilted></_>
    <_>
      <rects>
        <_>
          16 3 9 12 -1.</_>
        <_>
          16 7 9 4 3.</_></rects>
      <tilted>0</tilted></_>
    <_>
      <rects>
        <_>
          16 5 8 12 -1.</_>
        <_>
          16 9 8 4 3.</_></rects>
      <tilted>0</tilted></_>
    <_>
      <rects>
        <_>
          16 7 8 8 -1.</_>
        <_>
          16 11 8 4 2.</_></rects>
      <tilted>0</tilted></_>
    <_>
      <rects>
        <_>
          16 16 6 11 -1.</_>
        <_>
          18 16 2 11 3.</_></rects>
      <tilted>0</tilted></_>
    <_>
      <rects>
        <_>
          17 7 16 16 -1.</_>
        <_>
          17 7 8 8 2.</_>
        <_>
          25 15 8 8 2.</_></rects>
      <tilted>0</tilted></_>
    <_>
      <rects>
        <_>
          18 8 5 16 -1.</_>
        <_>
          18 16 5 8 2.</_></rects>
      <tilted>0</tilted></_>
    <_>
      <rects>
        <_>
          18 17 6 10 -1.</_>
        <_>
          20 17 2 10 3.</_></rects>
      <tilted>0</tilted></_>
    <_>
      <rects>
        <_>
          18 23 14 6 -1.</_>
        <_>
          18 23 7 3 2.</_>
        <_>
          25 26 7 3 2.</_></rects>
      <tilted>0</tilted></_>
    <_>
      <rects>
        <_>
          20 17 6 11 -1.</_>
        <_>
          22 17 2 11 3.</_></rects>
      <tilted>0</tilted></_>
    <_>
      <rects>
        <_>
          20 25 20 13 -1.</_>
        <_>
          30 25 10 13 2.</_></rects>
      <tilted>0</tilted></_>
    <_>
      <rects>
        <_>
          20 28 13 12 -1.</_>
        <_>
          20 34 13 6 2.</_></rects>
      <tilted>0</tilted></_>
    <_>
      <rects>
        <_>
          23 18 12 4 -1.</_>
        <_>
          27 18 4 4 3.</_></rects>
      <tilted>0</tilted></_>
    <_>
      <rects>
        <_>
          24 7 16 26 -1.</_>
        <_>
          32 7 8 26 2.</_></rects>
      <tilted>0</tilted></_>
    <_>
      <rects>
        <_>
          24 19 12 5 -1.</_>
        <_>
          28 19 4 5 3.</_></rects>
      <tilted>0</tilted></_>
    <_>
      <rects>
        <_>
          24 20 13 18 -1.</_>
        <_>
          24 29 13 9 2.</_></rects>
      <tilted>0</tilted></_>
    <_>
      <rects>
        <_>
          25 0 15 28 -1.</_>
        <_>
          25 14 15 14 2.</_></rects>
      <tilted>0</tilted></_>
    <_>
      <rects>
        <_>
          25 14 12 11 -1.</_>
        <_>
          29 14 4 11 3.</_></rects>
      <tilted>0</tilted></_>
    <_>
      <rects>
        <_>
          25 14 12 14 -1.</_>
        <_>
          31 14 6 14 2.</_></rects>
      <tilted>0</tilted></_>
    <_>
      <rects>
        <_>
          26 0 14 22 -1.</_>
        <_>
          26 0 7 11 2.</_>
        <_>
          33 11 7 11 2.</_></rects>
      <tilted>0</tilted></_>
    <_>
      <rects>
        <_>
          26 4 14 31 -1.</_>
        <_>
          33 4 7 31 2.</_></rects>
      <tilted>0</tilted></_>
    <_>
      <rects>
        <_>
          27 20 9 5 -1.</_>
        <_>
          30 20 3 5 3.</_></rects>
      <tilted>0</tilted></_>
    <_>
      <rects>
        <_>
          28 14 9 17 -1.</_>
        <_>
          31 14 3 17 3.</_></rects>
      <tilted>0</tilted></_>
    <_>
      <rects>
        <_>
          34 0 6 1 -1.</_>
        <_>
          37 0 3 1 2.</_></rects>
      <tilted>0</tilted></_>
    <_>
      <rects>
        <_>
          37 2 3 38 -1.</_>
        <_>
          37 21 3 19 2.</_></rects>
      <tilted>0</tilted></_></features></cascade>
</opencv_storage>
